<?xml version="1.0"?>
<opencv_storage>
<clay_target type_id="opencv-haar-classifier">
  <size>
    20 20</size>
  <stages>
    <_>
      <trees>
        <_>
          <_>
            <feature>
              <rects>
                <_>
                  0 1 18 18 -1.</_>
                <_>
                  6 7 6 6 9.</_></rects>
              <tilted>0</tilted></feature>
            <threshold>-0.8693714737892151</threshold>
            <left_val>1.</left_val>
            <right_val>-0.9826126098632813</right_val></_></_>
        <_>
          <_>
            <feature>
              <rects>
                <_>
                  10 7 5 8 -1.</_>
                <_>
                  10 7 5 4 2.</_></rects>
              <tilted>1</tilted></feature>
            <threshold>-0.1257615983486176</threshold>
            <left_val>0.8999791145324707</left_val>
            <right_val>-0.8761991858482361</right_val></_></_>
        <_>
          <_>
            <feature>
              <rects>
                <_>
                  0 6 16 14 -1.</_>
                <_>
                  4 6 8 14 2.</_></rects>
              <tilted>0</tilted></feature>
            <threshold>-0.0743379816412926</threshold>
            <left_val>0.9419695734977722</left_val>
            <right_val>-0.9592152237892151</right_val></_></_></trees>
      <stage_threshold>-0.9168422818183899</stage_threshold>
      <parent>-1</parent>
      <next>-1</next></_>
    <_>
      <trees>
        <_>
          <_>
            <feature>
              <rects>
                <_>
                  0 3 18 15 -1.</_>
                <_>
                  6 8 6 5 9.</_></rects>
              <tilted>0</tilted></feature>
            <threshold>-0.9189348816871643</threshold>
            <left_val>1.</left_val>
            <right_val>-0.9655210971832275</right_val></_></_>
        <_>
          <_>
            <feature>
              <rects>
                <_>
                  1 2 18 18 -1.</_>
                <_>
                  7 8 6 6 9.</_></rects>
              <tilted>0</tilted></feature>
            <threshold>-1.1489720344543457</threshold>
            <left_val>1.</left_val>
            <right_val>-0.8709527850151062</right_val></_></_>
        <_>
          <_>
            <feature>
              <rects>
                <_>
                  10 7 8 5 -1.</_>
                <_>
                  10 7 4 5 2.</_></rects>
              <tilted>1</tilted></feature>
            <threshold>-0.1067349985241890</threshold>
            <left_val>0.8329709768295288</left_val>
            <right_val>-0.9833002090454102</right_val></_></_></trees>
      <stage_threshold>-1.0035029649734497</stage_threshold>
      <parent>0</parent>
      <next>-1</next></_>
    <_>
      <trees>
        <_>
          <_>
            <feature>
              <rects>
                <_>
                  1 1 18 18 -1.</_>
                <_>
                  7 7 6 6 9.</_></rects>
              <tilted>0</tilted></feature>
            <threshold>-1.1881940364837646</threshold>
            <left_val>0.9737750291824341</left_val>
            <right_val>-0.9313567280769348</right_val></_></_>
        <_>
          <_>
            <feature>
              <rects>
                <_>
                  1 5 18 12 -1.</_>
                <_>
                  7 9 6 4 9.</_></rects>
              <tilted>0</tilted></feature>
            <threshold>-1.0499880313873291</threshold>
            <left_val>1.</left_val>
            <right_val>-0.7932257056236267</right_val></_></_>
        <_>
          <_>
            <feature>
              <rects>
                <_>
                  0 0 1 20 -1.</_>
                <_>
                  0 5 1 10 2.</_></rects>
              <tilted>0</tilted></feature>
            <threshold>-2.4279390927404165e-003</threshold>
            <left_val>-0.9841408133506775</left_val>
            <right_val>0.7359942197799683</right_val></_></_></trees>
      <stage_threshold>-0.9885882139205933</stage_threshold>
      <parent>1</parent>
      <next>-1</next></_>
    <_>
      <trees>
        <_>
          <_>
            <feature>
              <rects>
                <_>
                  0 8 12 6 -1.</_>
                <_>
                  6 8 6 6 2.</_></rects>
              <tilted>0</tilted></feature>
            <threshold>-0.1218096017837524</threshold>
            <left_val>1.</left_val>
            <right_val>-0.9826123714447022</right_val></_></_>
        <_>
          <_>
            <feature>
              <rects>
                <_>
                  8 8 12 6 -1.</_>
                <_>
                  8 8 6 6 2.</_></rects>
              <tilted>0</tilted></feature>
            <threshold>-0.1578923016786575</threshold>
            <left_val>0.6690453290939331</left_val>
            <right_val>-0.7451167702674866</right_val></_></_>
        <_>
          <_>
            <feature>
              <rects>
                <_>
                  8 0 3 12 -1.</_>
                <_>
                  9 4 1 4 9.</_></rects>
              <tilted>0</tilted></feature>
            <threshold>0.0348140001296997</threshold>
            <left_val>-0.8654431104660034</left_val>
            <right_val>0.8991069197654724</right_val></_></_></trees>
      <stage_threshold>-0.8286222815513611</stage_threshold>
      <parent>2</parent>
      <next>-1</next></_>
    <_>
      <trees>
        <_>
          <_>
            <feature>
              <rects>
                <_>
                  1 5 18 12 -1.</_>
                <_>
                  7 9 6 4 9.</_></rects>
              <tilted>0</tilted></feature>
            <threshold>-1.0109469890594482</threshold>
            <left_val>0.8954607248306274</left_val>
            <right_val>-0.8622546195983887</right_val></_></_>
        <_>
          <_>
            <feature>
              <rects>
                <_>
                  7 4 6 12 -1.</_>
                <_>
                  9 8 2 4 9.</_></rects>
              <tilted>0</tilted></feature>
            <threshold>-0.3047944903373718</threshold>
            <left_val>1.</left_val>
            <right_val>-0.5213999748229981</right_val></_></_>
        <_>
          <_>
            <feature>
              <rects>
                <_>
                  7 9 2 10 -1.</_>
                <_>
                  8 9 1 10 2.</_></rects>
              <tilted>0</tilted></feature>
            <threshold>-2.3439670621883124e-004</threshold>
            <left_val>0.7304239869117737</left_val>
            <right_val>-0.6637194752693176</right_val></_></_>
        <_>
          <_>
            <feature>
              <rects>
                <_>
                  10 0 6 8 -1.</_>
                <_>
                  10 0 3 8 2.</_></rects>
              <tilted>1</tilted></feature>
            <threshold>-0.1026621013879776</threshold>
            <left_val>0.8224952220916748</left_val>
            <right_val>-0.0761203691363335</right_val></_></_></trees>
      <stage_threshold>-1.2248790264129639</stage_threshold>
      <parent>3</parent>
      <next>-1</next></_>
    <_>
      <trees>
        <_>
          <_>
            <feature>
              <rects>
                <_>
                  8 2 4 18 -1.</_>
                <_>
                  8 8 4 6 3.</_></rects>
              <tilted>0</tilted></feature>
            <threshold>-0.2662914097309113</threshold>
            <left_val>0.8458415269851685</left_val>
            <right_val>-0.8424271941184998</right_val></_></_>
        <_>
          <_>
            <feature>
              <rects>
                <_>
                  8 1 7 16 -1.</_>
                <_>
                  8 5 7 8 2.</_></rects>
              <tilted>0</tilted></feature>
            <threshold>-0.1333556026220322</threshold>
            <left_val>0.5879601240158081</left_val>
            <right_val>-0.7940189242362976</right_val></_></_>
        <_>
          <_>
            <feature>
              <rects>
                <_>
                  5 1 8 18 -1.</_>
                <_>
                  5 7 8 6 3.</_></rects>
              <tilted>0</tilted></feature>
            <threshold>-0.4213193953037262</threshold>
            <left_val>0.8405637741088867</left_val>
            <right_val>-0.5168539285659790</right_val></_></_>
        <_>
          <_>
            <feature>
              <rects>
                <_>
                  0 2 20 6 -1.</_>
                <_>
                  10 2 10 3 2.</_>
                <_>
                  0 5 10 3 2.</_></rects>
              <tilted>0</tilted></feature>
            <threshold>0.0140031101182103</threshold>
            <left_val>0.4806553125381470</left_val>
            <right_val>-0.9175497293472290</right_val></_></_>
        <_>
          <_>
            <feature>
              <rects>
                <_>
                  1 19 15 1 -1.</_>
                <_>
                  6 19 5 1 3.</_></rects>
              <tilted>0</tilted></feature>
            <threshold>-5.7978280819952488e-003</threshold>
            <left_val>-1.</left_val>
            <right_val>0.2740426063537598</right_val></_></_></trees>
      <stage_threshold>-1.3986020088195801</stage_threshold>
      <parent>4</parent>
      <next>-1</next></_>
    <_>
      <trees>
        <_>
          <_>
            <feature>
              <rects>
                <_>
                  0 5 18 12 -1.</_>
                <_>
                  6 9 6 4 9.</_></rects>
              <tilted>0</tilted></feature>
            <threshold>-1.1333489418029785</threshold>
            <left_val>0.8884810805320740</left_val>
            <right_val>-0.7564051151275635</right_val></_></_>
        <_>
          <_>
            <feature>
              <rects>
                <_>
                  0 8 20 5 -1.</_>
                <_>
                  5 8 10 5 2.</_></rects>
              <tilted>0</tilted></feature>
            <threshold>-0.1859751045703888</threshold>
            <left_val>0.6582927703857422</left_val>
            <right_val>-0.8059272170066834</right_val></_></_>
        <_>
          <_>
            <feature>
              <rects>
                <_>
                  3 16 12 2 -1.</_>
                <_>
                  7 16 4 2 3.</_></rects>
              <tilted>0</tilted></feature>
            <threshold>-3.1968010589480400e-003</threshold>
            <left_val>-0.9525995254516602</left_val>
            <right_val>0.5226935744285584</right_val></_></_></trees>
      <stage_threshold>-1.0396389961242676</stage_threshold>
      <parent>5</parent>
      <next>-1</next></_>
    <_>
      <trees>
        <_>
          <_>
            <feature>
              <rects>
                <_>
                  1 8 18 10 -1.</_>
                <_>
                  7 8 6 10 3.</_></rects>
              <tilted>0</tilted></feature>
            <threshold>-0.2939988076686859</threshold>
            <left_val>0.7654321789741516</left_val>
            <right_val>-0.9226226806640625</right_val></_></_>
        <_>
          <_>
            <feature>
              <rects>
                <_>
                  0 10 20 2 -1.</_>
                <_>
                  5 10 10 2 2.</_></rects>
              <tilted>0</tilted></feature>
            <threshold>-0.1289771944284439</threshold>
            <left_val>0.9037547707557678</left_val>
            <right_val>-0.6359745860099793</right_val></_></_>
        <_>
          <_>
            <feature>
              <rects>
                <_>
                  3 16 12 3 -1.</_>
                <_>
                  7 17 4 1 9.</_></rects>
              <tilted>0</tilted></feature>
            <threshold>5.9965359978377819e-003</threshold>
            <left_val>0.5853877067565918</left_val>
            <right_val>-0.9157606959342957</right_val></_></_></trees>
      <stage_threshold>-0.9732096195220947</stage_threshold>
      <parent>6</parent>
      <next>-1</next></_>
    <_>
      <trees>
        <_>
          <_>
            <feature>
              <rects>
                <_>
                  2 8 16 5 -1.</_>
                <_>
                  6 8 8 5 2.</_></rects>
              <tilted>0</tilted></feature>
            <threshold>-0.2154923975467682</threshold>
            <left_val>0.7677611708641052</left_val>
            <right_val>-0.6072524785995483</right_val></_></_>
        <_>
          <_>
            <feature>
              <rects>
                <_>
                  11 0 6 2 -1.</_>
                <_>
                  13 2 2 2 3.</_></rects>
              <tilted>1</tilted></feature>
            <threshold>4.5794248580932617e-003</threshold>
            <left_val>0.1965724974870682</left_val>
            <right_val>-0.9224975705146790</right_val></_></_>
        <_>
          <_>
            <feature>
              <rects>
                <_>
                  7 6 9 1 -1.</_>
                <_>
                  10 9 3 1 3.</_></rects>
              <tilted>1</tilted></feature>
            <threshold>-0.0790998563170433</threshold>
            <left_val>0.7678753137588501</left_val>
            <right_val>-0.4606648087501526</right_val></_></_>
        <_>
          <_>
            <feature>
              <rects>
                <_>
                  14 3 2 11 -1.</_>
                <_>
                  14 3 1 11 2.</_></rects>
              <tilted>0</tilted></feature>
            <threshold>-7.2573539800941944e-003</threshold>
            <left_val>0.7560092210769653</left_val>
            <right_val>-0.2602373063564301</right_val></_></_>
        <_>
          <_>
            <feature>
              <rects>
                <_>
                  4 3 2 11 -1.</_>
                <_>
                  5 3 1 11 2.</_></rects>
              <tilted>0</tilted></feature>
            <threshold>-9.4111897051334381e-003</threshold>
            <left_val>0.7446593046188355</left_val>
            <right_val>-0.4719732999801636</right_val></_></_>
        <_>
          <_>
            <feature>
              <rects>
                <_>
                  11 0 6 2 -1.</_>
                <_>
                  13 2 2 2 3.</_></rects>
              <tilted>1</tilted></feature>
            <threshold>-6.2978100031614304e-003</threshold>
            <left_val>-0.8322995901107788</left_val>
            <right_val>0.1874375939369202</right_val></_></_>
        <_>
          <_>
            <feature>
              <rects>
                <_>
                  9 0 2 6 -1.</_>
                <_>
                  7 2 2 2 3.</_></rects>
              <tilted>1</tilted></feature>
            <threshold>6.9343158975243568e-003</threshold>
            <left_val>0.3287912011146545</left_val>
            <right_val>-1.0000009536743164</right_val></_></_></trees>
      <stage_threshold>-1.0873270034790039</stage_threshold>
      <parent>7</parent>
      <next>-1</next></_>
    <_>
      <trees>
        <_>
          <_>
            <feature>
              <rects>
                <_>
                  0 10 20 2 -1.</_>
                <_>
                  5 10 10 2 2.</_></rects>
              <tilted>0</tilted></feature>
            <threshold>-0.1439827978610992</threshold>
            <left_val>0.8669000267982483</left_val>
            <right_val>-0.5433599948883057</right_val></_></_>
        <_>
          <_>
            <feature>
              <rects>
                <_>
                  12 0 2 20 -1.</_>
                <_>
                  12 0 1 20 2.</_></rects>
              <tilted>0</tilted></feature>
            <threshold>-3.1127448892220855e-004</threshold>
            <left_val>0.4295183122158051</left_val>
            <right_val>-0.9025971293449402</right_val></_></_>
        <_>
          <_>
            <feature>
              <rects>
                <_>
                  7 4 3 9 -1.</_>
                <_>
                  8 4 1 9 3.</_></rects>
              <tilted>0</tilted></feature>
            <threshold>-1.8300059309694916e-004</threshold>
            <left_val>0.5731815099716187</left_val>
            <right_val>-0.6993682980537415</right_val></_></_>
        <_>
          <_>
            <feature>
              <rects>
                <_>
                  9 4 2 12 -1.</_>
                <_>
                  9 7 2 6 2.</_></rects>
              <tilted>0</tilted></feature>
            <threshold>-0.0705415904521942</threshold>
            <left_val>0.6067302823066711</left_val>
            <right_val>-0.5731061100959778</right_val></_></_>
        <_>
          <_>
            <feature>
              <rects>
                <_>
                  10 6 3 4 -1.</_>
                <_>
                  9 7 3 2 2.</_></rects>
              <tilted>1</tilted></feature>
            <threshold>-8.5634943097829819e-003</threshold>
            <left_val>-0.3805361092090607</left_val>
            <right_val>0.8221986293792725</right_val></_></_></trees>
      <stage_threshold>-0.6236829757690430</stage_threshold>
      <parent>8</parent>
      <next>-1</next></_>
    <_>
      <trees>
        <_>
          <_>
            <feature>
              <rects>
                <_>
                  2 5 16 12 -1.</_>
                <_>
                  2 9 16 4 3.</_></rects>
              <tilted>0</tilted></feature>
            <threshold>-0.4113978147506714</threshold>
            <left_val>0.6637163162231445</left_val>
            <right_val>-0.6521759033203125</right_val></_></_>
        <_>
          <_>
            <feature>
              <rects>
                <_>
                  12 0 2 17 -1.</_>
                <_>
                  12 0 1 17 2.</_></rects>
              <tilted>0</tilted></feature>
            <threshold>-4.7493449528701603e-004</threshold>
            <left_val>0.1811266988515854</left_val>
            <right_val>-0.8394556045532227</right_val></_></_>
        <_>
          <_>
            <feature>
              <rects>
                <_>
                  6 0 2 17 -1.</_>
                <_>
                  7 0 1 17 2.</_></rects>
              <tilted>0</tilted></feature>
            <threshold>-3.6976800765842199e-004</threshold>
            <left_val>0.4605335891246796</left_val>
            <right_val>-0.8222041726112366</right_val></_></_>
        <_>
          <_>
            <feature>
              <rects>
                <_>
                  15 2 4 5 -1.</_>
                <_>
                  15 2 2 5 2.</_></rects>
              <tilted>1</tilted></feature>
            <threshold>-0.0170764103531837</threshold>
            <left_val>-0.6291561126708984</left_val>
            <right_val>8.2360776141285896e-003</right_val></_></_>
        <_>
          <_>
            <feature>
              <rects>
                <_>
                  1 2 16 4 -1.</_>
                <_>
                  5 2 8 4 2.</_></rects>
              <tilted>0</tilted></feature>
            <threshold>-0.0104402201250196</threshold>
            <left_val>-0.8205422759056091</left_val>
            <right_val>0.4210256040096283</right_val></_></_>
        <_>
          <_>
            <feature>
              <rects>
                <_>
                  10 11 2 1 -1.</_>
                <_>
                  10 11 1 1 2.</_></rects>
              <tilted>0</tilted></feature>
            <threshold>-1.0844609641935676e-004</threshold>
            <left_val>0.2256781011819840</left_val>
            <right_val>-0.3439772129058838</right_val></_></_>
        <_>
          <_>
            <feature>
              <rects>
                <_>
                  7 0 6 6 -1.</_>
                <_>
                  10 0 3 6 2.</_></rects>
              <tilted>0</tilted></feature>
            <threshold>5.6353081163251773e-005</threshold>
            <left_val>-0.4970596134662628</left_val>
            <right_val>0.7227607965469360</right_val></_></_></trees>
      <stage_threshold>-1.5057899951934814</stage_threshold>
      <parent>9</parent>
      <next>-1</next></_>
    <_>
      <trees>
        <_>
          <_>
            <feature>
              <rects>
                <_>
                  7 2 5 18 -1.</_>
                <_>
                  7 8 5 6 3.</_></rects>
              <tilted>0</tilted></feature>
            <threshold>-0.3547911047935486</threshold>
            <left_val>0.6695647835731506</left_val>
            <right_val>-0.6814178228378296</right_val></_></_>
        <_>
          <_>
            <feature>
              <rects>
                <_>
                  14 11 2 8 -1.</_>
                <_>
                  15 11 1 4 2.</_>
                <_>
                  14 15 1 4 2.</_></rects>
              <tilted>0</tilted></feature>
            <threshold>8.2623697817325592e-003</threshold>
            <left_val>0.0817497670650482</left_val>
            <right_val>-0.5530210733413696</right_val></_></_>
        <_>
          <_>
            <feature>
              <rects>
                <_>
                  2 14 16 6 -1.</_>
                <_>
                  2 14 8 3 2.</_>
                <_>
                  10 17 8 3 2.</_></rects>
              <tilted>0</tilted></feature>
            <threshold>-0.0102700497955084</threshold>
            <left_val>-0.8620668053627014</left_val>
            <right_val>0.4126808941364288</right_val></_></_>
        <_>
          <_>
            <feature>
              <rects>
                <_>
                  14 11 2 8 -1.</_>
                <_>
                  15 11 1 4 2.</_>
                <_>
                  14 15 1 4 2.</_></rects>
              <tilted>0</tilted></feature>
            <threshold>0.0153547096997499</threshold>
            <left_val>-0.0870723277330399</left_val>
            <right_val>-0.8580543994903565</right_val></_></_>
        <_>
          <_>
            <feature>
              <rects>
                <_>
                  4 11 2 8 -1.</_>
                <_>
                  4 11 1 4 2.</_>
                <_>
                  5 15 1 4 2.</_></rects>
              <tilted>0</tilted></feature>
            <threshold>2.7304238756187260e-004</threshold>
            <left_val>-0.5341910719871521</left_val>
            <right_val>0.6622670888900757</right_val></_></_>
        <_>
          <_>
            <feature>
              <rects>
                <_>
                  16 6 4 9 -1.</_>
                <_>
                  16 9 4 3 3.</_></rects>
              <tilted>0</tilted></feature>
            <threshold>-0.0346539206802845</threshold>
            <left_val>-1.</left_val>
            <right_val>0.1519940942525864</right_val></_></_></trees>
      <stage_threshold>-0.6562564969062805</stage_threshold>
      <parent>10</parent>
      <next>-1</next></_>
    <_>
      <trees>
        <_>
          <_>
            <feature>
              <rects>
                <_>
                  7 5 5 12 -1.</_>
                <_>
                  7 9 5 4 3.</_></rects>
              <tilted>0</tilted></feature>
            <threshold>-0.3306402862071991</threshold>
            <left_val>0.9163914918899536</left_val>
            <right_val>-0.4053531885147095</right_val></_></_>
        <_>
          <_>
            <feature>
              <rects>
                <_>
                  19 0 1 12 -1.</_>
                <_>
                  19 4 1 4 3.</_></rects>
              <tilted>0</tilted></feature>
            <threshold>-7.4636621866375208e-004</threshold>
            <left_val>-0.7171028256416321</left_val>
            <right_val>0.3238953948020935</right_val></_></_>
        <_>
          <_>
            <feature>
              <rects>
                <_>
                  0 9 20 2 -1.</_>
                <_>
                  5 9 10 2 2.</_></rects>
              <tilted>0</tilted></feature>
            <threshold>-0.1255916059017181</threshold>
            <left_val>0.7185789942741394</left_val>
            <right_val>-0.4183552861213684</right_val></_></_>
        <_>
          <_>
            <feature>
              <rects>
                <_>
                  9 1 3 18 -1.</_>
                <_>
                  10 1 1 18 3.</_></rects>
              <tilted>0</tilted></feature>
            <threshold>-2.7770549058914185e-004</threshold>
            <left_val>0.3050531148910523</left_val>
            <right_val>-0.6178007721900940</right_val></_></_>
        <_>
          <_>
            <feature>
              <rects>
                <_>
                  3 12 5 3 -1.</_>
                <_>
                  2 13 5 1 3.</_></rects>
              <tilted>1</tilted></feature>
            <threshold>5.0829089013859630e-004</threshold>
            <left_val>0.3841288089752197</left_val>
            <right_val>-0.7981454133987427</right_val></_></_>
        <_>
          <_>
            <feature>
              <rects>
                <_>
                  18 2 2 7 -1.</_>
                <_>
                  18 2 1 7 2.</_></rects>
              <tilted>1</tilted></feature>
            <threshold>0.0111810797825456</threshold>
            <left_val>-0.2069962024688721</left_val>
            <right_val>0.3434560000896454</right_val></_></_></trees>
      <stage_threshold>-1.0586260557174683</stage_threshold>
      <parent>11</parent>
      <next>-1</next></_>
    <_>
      <trees>
        <_>
          <_>
            <feature>
              <rects>
                <_>
                  5 11 4 8 -1.</_>
                <_>
                  6 11 2 8 2.</_></rects>
              <tilted>0</tilted></feature>
            <threshold>-1.0838689922820777e-004</threshold>
            <left_val>0.6119613051414490</left_val>
            <right_val>-0.5266804099082947</right_val></_></_>
        <_>
          <_>
            <feature>
              <rects>
                <_>
                  10 8 2 2 -1.</_>
                <_>
                  10 8 1 2 2.</_></rects>
              <tilted>0</tilted></feature>
            <threshold>3.1430099625140429e-005</threshold>
            <left_val>-0.1545276045799255</left_val>
            <right_val>0.4372543096542358</right_val></_></_>
        <_>
          <_>
            <feature>
              <rects>
                <_>
                  8 8 3 1 -1.</_>
                <_>
                  9 8 1 1 3.</_></rects>
              <tilted>0</tilted></feature>
            <threshold>-3.1430099625140429e-005</threshold>
            <left_val>0.6488546729087830</left_val>
            <right_val>-0.4290548861026764</right_val></_></_>
        <_>
          <_>
            <feature>
              <rects>
                <_>
                  0 10 20 2 -1.</_>
                <_>
                  5 10 10 2 2.</_></rects>
              <tilted>0</tilted></feature>
            <threshold>-0.1516027003526688</threshold>
            <left_val>0.7126225829124451</left_val>
            <right_val>-0.3619348108768463</right_val></_></_>
        <_>
          <_>
            <feature>
              <rects>
                <_>
                  0 0 3 16 -1.</_>
                <_>
                  0 8 3 8 2.</_></rects>
              <tilted>0</tilted></feature>
            <threshold>0.0148903401568532</threshold>
            <left_val>0.2674387097358704</left_val>
            <right_val>-1.0000009536743164</right_val></_></_>
        <_>
          <_>
            <feature>
              <rects>
                <_>
                  12 1 3 3 -1.</_>
                <_>
                  11 2 3 1 3.</_></rects>
              <tilted>1</tilted></feature>
            <threshold>-2.4791748728603125e-004</threshold>
            <left_val>0.4313167035579681</left_val>
            <right_val>-0.2122298926115036</right_val></_></_>
        <_>
          <_>
            <feature>
              <rects>
                <_>
                  2 11 3 4 -1.</_>
                <_>
                  3 11 1 4 3.</_></rects>
              <tilted>0</tilted></feature>
            <threshold>5.9187888837186620e-005</threshold>
            <left_val>-0.3171272873878479</left_val>
            <right_val>0.7401655912399292</right_val></_></_>
        <_>
          <_>
            <feature>
              <rects>
                <_>
                  10 3 10 6 -1.</_>
                <_>
                  10 3 5 6 2.</_></rects>
              <tilted>0</tilted></feature>
            <threshold>5.1165539771318436e-003</threshold>
            <left_val>-0.0964677333831787</left_val>
            <right_val>0.4544466137886047</right_val></_></_>
        <_>
          <_>
            <feature>
              <rects>
                <_>
                  5 2 6 5 -1.</_>
                <_>
                  7 2 2 5 3.</_></rects>
              <tilted>0</tilted></feature>
            <threshold>-5.4193460528040305e-005</threshold>
            <left_val>0.6389601826667786</left_val>
            <right_val>-0.3741657137870789</right_val></_></_></trees>
      <stage_threshold>-1.1916240453720093</stage_threshold>
      <parent>12</parent>
      <next>-1</next></_>
    <_>
      <trees>
        <_>
          <_>
            <feature>
              <rects>
                <_>
                  6 9 8 8 -1.</_>
                <_>
                  6 13 8 4 2.</_></rects>
              <tilted>0</tilted></feature>
            <threshold>0.2354359030723572</threshold>
            <left_val>-0.3275864124298096</left_val>
            <right_val>0.9500023722648621</right_val></_></_>
        <_>
          <_>
            <feature>
              <rects>
                <_>
                  18 3 2 16 -1.</_>
                <_>
                  18 11 2 8 2.</_></rects>
              <tilted>0</tilted></feature>
            <threshold>0.0125991497188807</threshold>
            <left_val>0.1947122961282730</left_val>
            <right_val>-0.8196774125099182</right_val></_></_>
        <_>
          <_>
            <feature>
              <rects>
                <_>
                  0 0 4 12 -1.</_>
                <_>
                  0 3 4 6 2.</_></rects>
              <tilted>0</tilted></feature>
            <threshold>7.4441852048039436e-003</threshold>
            <left_val>0.2789489924907684</left_val>
            <right_val>-0.9464622735977173</right_val></_></_>
        <_>
          <_>
            <feature>
              <rects>
                <_>
                  15 2 1 15 -1.</_>
                <_>
                  10 7 1 5 3.</_></rects>
              <tilted>1</tilted></feature>
            <threshold>-0.1241146028041840</threshold>
            <left_val>0.3600181043148041</left_val>
            <right_val>-0.2095987051725388</right_val></_></_>
        <_>
          <_>
            <feature>
              <rects>
                <_>
                  10 5 8 3 -1.</_>
                <_>
                  12 7 4 3 2.</_></rects>
              <tilted>1</tilted></feature>
            <threshold>-0.1319835036993027</threshold>
            <left_val>0.8159195184707642</left_val>
            <right_val>-0.3235915005207062</right_val></_></_>
        <_>
          <_>
            <feature>
              <rects>
                <_>
                  15 14 4 6 -1.</_>
                <_>
                  15 16 4 2 3.</_></rects>
              <tilted>0</tilted></feature>
            <threshold>-8.2082515582442284e-003</threshold>
            <left_val>-1.</left_val>
            <right_val>0.0828073993325233</right_val></_></_>
        <_>
          <_>
            <feature>
              <rects>
                <_>
                  2 1 14 4 -1.</_>
                <_>
                  2 1 7 2 2.</_>
                <_>
                  9 3 7 2 2.</_></rects>
              <tilted>0</tilted></feature>
            <threshold>2.3489498998969793e-003</threshold>
            <left_val>0.2071485966444016</left_val>
            <right_val>-0.9999986290931702</right_val></_></_></trees>
      <stage_threshold>-1.1115490198135376</stage_threshold>
      <parent>13</parent>
      <next>-1</next></_></stages></clay_target>
</opencv_storage>
